digraph Tree {
node [shape=box, style="filled", color="black"] ;
0 [label="X[17] <= -2.704\ngini = 0.003\nsamples = 198608\nvalue = [198260, 348]", fillcolor="#e58139"] ;
1 [label="X[12] <= -2.181\ngini = 0.347\nsamples = 313\nvalue = [70, 243]", fillcolor="#72b9ec"] ;
0 -> 1 [labeldistance=2.5, labelangle=45, headlabel="True"] ;
2 [label="X[26] <= -0.225\ngini = 0.288\nsamples = 292\nvalue = [51, 241]", fillcolor="#63b2eb"] ;
1 -> 2 ;
3 [label="X[27] <= 0.915\ngini = 0.467\nsamples = 97\nvalue = [36, 61]", fillcolor="#aed7f4"] ;
2 -> 3 ;
4 [label="X[3] <= -0.936\ngini = 0.292\nsamples = 62\nvalue = [11, 51]", fillcolor="#64b2eb"] ;
3 -> 4 ;
5 [label="gini = 0.168\nsamples = 54\nvalue = [5, 49]", fillcolor="#4da7e8"] ;
4 -> 5 ;
6 [label="gini = 0.375\nsamples = 8\nvalue = [6, 2]", fillcolor="#eeab7b"] ;
4 -> 6 ;
7 [label="X[29] <= 94.99\ngini = 0.408\nsamples = 35\nvalue = [25, 10]", fillcolor="#efb388"] ;
3 -> 7 ;
8 [label="gini = 0.142\nsamples = 26\nvalue = [24, 2]", fillcolor="#e78c49"] ;
7 -> 8 ;
9 [label="gini = 0.198\nsamples = 9\nvalue = [1, 8]", fillcolor="#52a9e8"] ;
7 -> 9 ;
10 [label="X[4] <= 1.166\ngini = 0.142\nsamples = 195\nvalue = [15, 180]", fillcolor="#49a5e7"] ;
2 -> 10 ;
11 [label="X[5] <= -1.155\ngini = 0.486\nsamples = 12\nvalue = [7, 5]", fillcolor="#f8dbc6"] ;
10 -> 11 ;
12 [label="gini = 0.0\nsamples = 6\nvalue = [6, 0]", fillcolor="#e58139"] ;
11 -> 12 ;
13 [label="gini = 0.278\nsamples = 6\nvalue = [1, 5]", fillcolor="#61b1ea"] ;
11 -> 13 ;
14 [label="X[11] <= 0.008\ngini = 0.084\nsamples = 183\nvalue = [8, 175]", fillcolor="#42a1e6"] ;
10 -> 14 ;
15 [label="gini = 0.444\nsamples = 3\nvalue = [2, 1]", fillcolor="#f2c09c"] ;
14 -> 15 ;
16 [label="gini = 0.064\nsamples = 180\nvalue = [6, 174]", fillcolor="#40a0e6"] ;
14 -> 16 ;
17 [label="X[21] <= 1.098\ngini = 0.172\nsamples = 21\nvalue = [19, 2]", fillcolor="#e88e4e"] ;
1 -> 17 ;
18 [label="gini = 0.0\nsamples = 19\nvalue = [19, 0]", fillcolor="#e58139"] ;
17 -> 18 ;
19 [label="gini = 0.0\nsamples = 2\nvalue = [0, 2]", fillcolor="#399de5"] ;
17 -> 19 ;
20 [label="X[12] <= -4.747\ngini = 0.001\nsamples = 198295\nvalue = [198190, 105]", fillcolor="#e58139"] ;
0 -> 20 [labeldistance=2.5, labelangle=-45, headlabel="False"] ;
21 [label="X[24] <= 0.205\ngini = 0.087\nsamples = 22\nvalue = [1, 21]", fillcolor="#42a2e6"] ;
20 -> 21 ;
22 [label="gini = 0.0\nsamples = 21\nvalue = [0, 21]", fillcolor="#399de5"] ;
21 -> 22 ;
23 [label="gini = 0.0\nsamples = 1\nvalue = [1, 0]", fillcolor="#e58139"] ;
21 -> 23 ;
24 [label="X[14] <= -4.661\ngini = 0.001\nsamples = 198273\nvalue = [198189, 84]", fillcolor="#e58139"] ;
20 -> 24 ;
25 [label="X[10] <= -1.847\ngini = 0.317\nsamples = 162\nvalue = [130, 32]", fillcolor="#eba06a"] ;
24 -> 25 ;
26 [label="X[16] <= 2.955\ngini = 0.339\nsamples = 37\nvalue = [8, 29]", fillcolor="#70b8ec"] ;
25 -> 26 ;
27 [label="gini = 0.121\nsamples = 31\nvalue = [2, 29]", fillcolor="#47a4e7"] ;
26 -> 27 ;
28 [label="gini = 0.0\nsamples = 6\nvalue = [6, 0]", fillcolor="#e58139"] ;
26 -> 28 ;
29 [label="X[15] <= -1.311\ngini = 0.047\nsamples = 125\nvalue = [122, 3]", fillcolor="#e6843e"] ;
25 -> 29 ;
30 [label="gini = 0.0\nsamples = 1\nvalue = [0, 1]", fillcolor="#399de5"] ;
29 -> 30 ;
31 [label="gini = 0.032\nsamples = 124\nvalue = [122, 2]", fillcolor="#e5833c"] ;
29 -> 31 ;
32 [label="X[14] <= -4.25\ngini = 0.001\nsamples = 198111\nvalue = [198059, 52]", fillcolor="#e58139"] ;
24 -> 32 ;
33 [label="X[15] <= -1.238\ngini = 0.071\nsamples = 81\nvalue = [78, 3]", fillcolor="#e68641"] ;
32 -> 33 ;
34 [label="gini = 0.0\nsamples = 2\nvalue = [0, 2]", fillcolor="#399de5"] ;
33 -> 34 ;
35 [label="gini = 0.025\nsamples = 79\nvalue = [78, 1]", fillcolor="#e5833c"] ;
33 -> 35 ;
36 [label="X[23] <= -15.449\ngini = 0.0\nsamples = 198030\nvalue = [197981, 49]", fillcolor="#e58139"] ;
32 -> 36 ;
37 [label="gini = 0.083\nsamples = 23\nvalue = [22, 1]", fillcolor="#e68742"] ;
36 -> 37 ;
38 [label="gini = 0.0\nsamples = 198007\nvalue = [197959, 48]", fillcolor="#e58139"] ;
36 -> 38 ;
}