digraph Tree {
node [shape=box, style="filled", color="black"] ;
0 [label="X[17] <= -2.704\ngini = 0.003\nsamples = 198608\nvalue = [198260, 348]", fillcolor="#e58139"] ;
1 [label="X[12] <= -2.181\ngini = 0.347\nsamples = 313\nvalue = [70, 243]", fillcolor="#72b9ec"] ;
0 -> 1 [labeldistance=2.5, labelangle=45, headlabel="True"] ;
2 [label="X[26] <= -0.225\ngini = 0.288\nsamples = 292\nvalue = [51, 241]", fillcolor="#63b2eb"] ;
1 -> 2 ;
3 [label="X[27] <= 0.915\ngini = 0.467\nsamples = 97\nvalue = [36, 61]", fillcolor="#aed7f4"] ;
2 -> 3 ;
4 [label="X[3] <= -0.936\ngini = 0.292\nsamples = 62\nvalue = [11, 51]", fillcolor="#64b2eb"] ;
3 -> 4 ;
5 [label="X[14] <= -2.022\ngini = 0.168\nsamples = 54\nvalue = [5, 49]", fillcolor="#4da7e8"] ;
4 -> 5 ;
6 [label="X[26] <= -0.335\ngini = 0.078\nsamples = 49\nvalue = [2, 47]", fillcolor="#41a1e6"] ;
5 -> 6 ;
7 [label="gini = 0.0\nsamples = 35\nvalue = [0, 35]", fillcolor="#399de5"] ;
6 -> 7 ;
8 [label="X[13] <= 1.582\ngini = 0.245\nsamples = 14\nvalue = [2, 12]", fillcolor="#5aade9"] ;
6 -> 8 ;
9 [label="X[26] <= -0.324\ngini = 0.142\nsamples = 13\nvalue = [1, 12]", fillcolor="#49a5e7"] ;
8 -> 9 ;
10 [label="gini = 0.0\nsamples = 1\nvalue = [1, 0]", fillcolor="#e58139"] ;
9 -> 10 ;
11 [label="gini = 0.0\nsamples = 12\nvalue = [0, 12]", fillcolor="#399de5"] ;
9 -> 11 ;
12 [label="gini = 0.0\nsamples = 1\nvalue = [1, 0]", fillcolor="#e58139"] ;
8 -> 12 ;
13 [label="X[8] <= -5.607\ngini = 0.48\nsamples = 5\nvalue = [3, 2]", fillcolor="#f6d5bd"] ;
5 -> 13 ;
14 [label="gini = 0.0\nsamples = 2\nvalue = [0, 2]", fillcolor="#399de5"] ;
13 -> 14 ;
15 [label="gini = 0.0\nsamples = 3\nvalue = [3, 0]", fillcolor="#e58139"] ;
13 -> 15 ;
16 [label="X[2] <= 1.579\ngini = 0.375\nsamples = 8\nvalue = [6, 2]", fillcolor="#eeab7b"] ;
4 -> 16 ;
17 [label="gini = 0.0\nsamples = 6\nvalue = [6, 0]", fillcolor="#e58139"] ;
16 -> 17 ;
18 [label="gini = 0.0\nsamples = 2\nvalue = [0, 2]", fillcolor="#399de5"] ;
16 -> 18 ;
19 [label="X[29] <= 94.99\ngini = 0.408\nsamples = 35\nvalue = [25, 10]", fillcolor="#efb388"] ;
3 -> 19 ;
20 [label="X[24] <= 0.223\ngini = 0.142\nsamples = 26\nvalue = [24, 2]", fillcolor="#e78c49"] ;
19 -> 20 ;
21 [label="gini = 0.0\nsamples = 24\nvalue = [24, 0]", fillcolor="#e58139"] ;
20 -> 21 ;
22 [label="gini = 0.0\nsamples = 2\nvalue = [0, 2]", fillcolor="#399de5"] ;
20 -> 22 ;
23 [label="X[1] <= -3.358\ngini = 0.198\nsamples = 9\nvalue = [1, 8]", fillcolor="#52a9e8"] ;
19 -> 23 ;
24 [label="gini = 0.0\nsamples = 8\nvalue = [0, 8]", fillcolor="#399de5"] ;
23 -> 24 ;
25 [label="gini = 0.0\nsamples = 1\nvalue = [1, 0]", fillcolor="#e58139"] ;
23 -> 25 ;
26 [label="X[4] <= 1.166\ngini = 0.142\nsamples = 195\nvalue = [15, 180]", fillcolor="#49a5e7"] ;
2 -> 26 ;
27 [label="X[5] <= -1.155\ngini = 0.486\nsamples = 12\nvalue = [7, 5]", fillcolor="#f8dbc6"] ;
26 -> 27 ;
28 [label="gini = 0.0\nsamples = 6\nvalue = [6, 0]", fillcolor="#e58139"] ;
27 -> 28 ;
29 [label="X[24] <= 0.567\ngini = 0.278\nsamples = 6\nvalue = [1, 5]", fillcolor="#61b1ea"] ;
27 -> 29 ;
30 [label="gini = 0.0\nsamples = 5\nvalue = [0, 5]", fillcolor="#399de5"] ;
29 -> 30 ;
31 [label="gini = 0.0\nsamples = 1\nvalue = [1, 0]", fillcolor="#e58139"] ;
29 -> 31 ;
32 [label="X[11] <= 0.008\ngini = 0.084\nsamples = 183\nvalue = [8, 175]", fillcolor="#42a1e6"] ;
26 -> 32 ;
33 [label="X[25] <= 0.778\ngini = 0.444\nsamples = 3\nvalue = [2, 1]", fillcolor="#f2c09c"] ;
32 -> 33 ;
34 [label="gini = 0.0\nsamples = 2\nvalue = [2, 0]", fillcolor="#e58139"] ;
33 -> 34 ;
35 [label="gini = 0.0\nsamples = 1\nvalue = [0, 1]", fillcolor="#399de5"] ;
33 -> 35 ;
36 [label="X[28] <= 0.945\ngini = 0.064\nsamples = 180\nvalue = [6, 174]", fillcolor="#40a0e6"] ;
32 -> 36 ;
37 [label="X[10] <= -1.369\ngini = 0.046\nsamples = 171\nvalue = [4, 167]", fillcolor="#3e9fe6"] ;
36 -> 37 ;
38 [label="X[4] <= 1.735\ngini = 0.035\nsamples = 169\nvalue = [3, 166]", fillcolor="#3d9fe5"] ;
37 -> 38 ;
39 [label="X[5] <= -0.162\ngini = 0.298\nsamples = 11\nvalue = [2, 9]", fillcolor="#65b3eb"] ;
38 -> 39 ;
40 [label="gini = 0.0\nsamples = 8\nvalue = [0, 8]", fillcolor="#399de5"] ;
39 -> 40 ;
41 [label="X[0] <= 149005.0\ngini = 0.444\nsamples = 3\nvalue = [2, 1]", fillcolor="#f2c09c"] ;
39 -> 41 ;
42 [label="gini = 0.0\nsamples = 2\nvalue = [2, 0]", fillcolor="#e58139"] ;
41 -> 42 ;
43 [label="gini = 0.0\nsamples = 1\nvalue = [0, 1]", fillcolor="#399de5"] ;
41 -> 43 ;
44 [label="X[13] <= -1.626\ngini = 0.013\nsamples = 158\nvalue = [1, 157]", fillcolor="#3a9ee5"] ;
38 -> 44 ;
45 [label="X[8] <= 0.796\ngini = 0.245\nsamples = 7\nvalue = [1, 6]", fillcolor="#5aade9"] ;
44 -> 45 ;
46 [label="gini = 0.0\nsamples = 6\nvalue = [0, 6]", fillcolor="#399de5"] ;
45 -> 46 ;
47 [label="gini = 0.0\nsamples = 1\nvalue = [1, 0]", fillcolor="#e58139"] ;
45 -> 47 ;
48 [label="gini = 0.0\nsamples = 151\nvalue = [0, 151]", fillcolor="#399de5"] ;
44 -> 48 ;
49 [label="X[18] <= -1.493\ngini = 0.5\nsamples = 2\nvalue = [1, 1]", fillcolor="#ffffff"] ;
37 -> 49 ;
50 [label="gini = 0.0\nsamples = 1\nvalue = [0, 1]", fillcolor="#399de5"] ;
49 -> 50 ;
51 [label="gini = 0.0\nsamples = 1\nvalue = [1, 0]", fillcolor="#e58139"] ;
49 -> 51 ;
52 [label="X[26] <= -0.06\ngini = 0.346\nsamples = 9\nvalue = [2, 7]", fillcolor="#72b9ec"] ;
36 -> 52 ;
53 [label="gini = 0.0\nsamples = 2\nvalue = [2, 0]", fillcolor="#e58139"] ;
52 -> 53 ;
54 [label="gini = 0.0\nsamples = 7\nvalue = [0, 7]", fillcolor="#399de5"] ;
52 -> 54 ;
55 [label="X[7] <= -3.562\ngini = 0.172\nsamples = 21\nvalue = [19, 2]", fillcolor="#e88e4e"] ;
1 -> 55 ;
56 [label="gini = 0.0\nsamples = 2\nvalue = [0, 2]", fillcolor="#399de5"] ;
55 -> 56 ;
57 [label="gini = 0.0\nsamples = 19\nvalue = [19, 0]", fillcolor="#e58139"] ;
55 -> 57 ;
58 [label="X[12] <= -4.747\ngini = 0.001\nsamples = 198295\nvalue = [198190, 105]", fillcolor="#e58139"] ;
0 -> 58 [labeldistance=2.5, labelangle=-45, headlabel="False"] ;
59 [label="X[5] <= 5.352\ngini = 0.087\nsamples = 22\nvalue = [1, 21]", fillcolor="#42a2e6"] ;
58 -> 59 ;
60 [label="gini = 0.0\nsamples = 21\nvalue = [0, 21]", fillcolor="#399de5"] ;
59 -> 60 ;
61 [label="gini = 0.0\nsamples = 1\nvalue = [1, 0]", fillcolor="#e58139"] ;
59 -> 61 ;
62 [label="X[14] <= -4.661\ngini = 0.001\nsamples = 198273\nvalue = [198189, 84]", fillcolor="#e58139"] ;
58 -> 62 ;
63 [label="X[10] <= -1.847\ngini = 0.317\nsamples = 162\nvalue = [130, 32]", fillcolor="#eba06a"] ;
62 -> 63 ;
64 [label="X[24] <= -1.045\ngini = 0.339\nsamples = 37\nvalue = [8, 29]", fillcolor="#70b8ec"] ;
63 -> 64 ;
65 [label="gini = 0.0\nsamples = 6\nvalue = [6, 0]", fillcolor="#e58139"] ;
64 -> 65 ;
66 [label="X[16] <= 2.986\ngini = 0.121\nsamples = 31\nvalue = [2, 29]", fillcolor="#47a4e7"] ;
64 -> 66 ;
67 [label="X[4] <= 1.29\ngini = 0.064\nsamples = 30\nvalue = [1, 29]", fillcolor="#40a0e6"] ;
66 -> 67 ;
68 [label="gini = 0.0\nsamples = 1\nvalue = [1, 0]", fillcolor="#e58139"] ;
67 -> 68 ;
69 [label="gini = 0.0\nsamples = 29\nvalue = [0, 29]", fillcolor="#399de5"] ;
67 -> 69 ;
70 [label="gini = 0.0\nsamples = 1\nvalue = [1, 0]", fillcolor="#e58139"] ;
66 -> 70 ;
71 [label="X[15] <= -1.311\ngini = 0.047\nsamples = 125\nvalue = [122, 3]", fillcolor="#e6843e"] ;
63 -> 71 ;
72 [label="gini = 0.0\nsamples = 1\nvalue = [0, 1]", fillcolor="#399de5"] ;
71 -> 72 ;
73 [label="X[21] <= -0.046\ngini = 0.032\nsamples = 124\nvalue = [122, 2]", fillcolor="#e5833c"] ;
71 -> 73 ;
74 [label="gini = 0.0\nsamples = 117\nvalue = [117, 0]", fillcolor="#e58139"] ;
73 -> 74 ;
75 [label="X[4] <= 4.525\ngini = 0.408\nsamples = 7\nvalue = [5, 2]", fillcolor="#efb388"] ;
73 -> 75 ;
76 [label="gini = 0.0\nsamples = 5\nvalue = [5, 0]", fillcolor="#e58139"] ;
75 -> 76 ;
77 [label="gini = 0.0\nsamples = 2\nvalue = [0, 2]", fillcolor="#399de5"] ;
75 -> 77 ;
78 [label="X[14] <= -4.25\ngini = 0.001\nsamples = 198111\nvalue = [198059, 52]", fillcolor="#e58139"] ;
62 -> 78 ;
79 [label="X[15] <= -1.238\ngini = 0.071\nsamples = 81\nvalue = [78, 3]", fillcolor="#e68641"] ;
78 -> 79 ;
80 [label="gini = 0.0\nsamples = 2\nvalue = [0, 2]", fillcolor="#399de5"] ;
79 -> 80 ;
81 [label="X[7] <= 0.213\ngini = 0.025\nsamples = 79\nvalue = [78, 1]", fillcolor="#e5833c"] ;
79 -> 81 ;
82 [label="X[1] <= 0.104\ngini = 0.444\nsamples = 3\nvalue = [2, 1]", fillcolor="#f2c09c"] ;
81 -> 82 ;
83 [label="gini = 0.0\nsamples = 2\nvalue = [2, 0]", fillcolor="#e58139"] ;
82 -> 83 ;
84 [label="gini = 0.0\nsamples = 1\nvalue = [0, 1]", fillcolor="#399de5"] ;
82 -> 84 ;
85 [label="gini = 0.0\nsamples = 76\nvalue = [76, 0]", fillcolor="#e58139"] ;
81 -> 85 ;
86 [label="X[23] <= -15.449\ngini = 0.0\nsamples = 198030\nvalue = [197981, 49]", fillcolor="#e58139"] ;
78 -> 86 ;
87 [label="X[15] <= -0.664\ngini = 0.083\nsamples = 23\nvalue = [22, 1]", fillcolor="#e68742"] ;
86 -> 87 ;
88 [label="gini = 0.0\nsamples = 1\nvalue = [0, 1]", fillcolor="#399de5"] ;
87 -> 88 ;
89 [label="gini = 0.0\nsamples = 22\nvalue = [22, 0]", fillcolor="#e58139"] ;
87 -> 89 ;
90 [label="X[14] <= -1.825\ngini = 0.0\nsamples = 198007\nvalue = [197959, 48]", fillcolor="#e58139"] ;
86 -> 90 ;
91 [label="X[14] <= -1.825\ngini = 0.006\nsamples = 5341\nvalue = [5325, 16]", fillcolor="#e5813a"] ;
90 -> 91 ;
92 [label="X[21] <= 6.144\ngini = 0.006\nsamples = 5340\nvalue = [5325, 15]", fillcolor="#e5813a"] ;
91 -> 92 ;
93 [label="X[4] <= 2.674\ngini = 0.005\nsamples = 5332\nvalue = [5319, 13]", fillcolor="#e58139"] ;
92 -> 93 ;
94 [label="X[29] <= 276.075\ngini = 0.002\nsamples = 4972\nvalue = [4966, 6]", fillcolor="#e58139"] ;
93 -> 94 ;
95 [label="X[0] <= 170344.0\ngini = 0.001\nsamples = 4790\nvalue = [4788, 2]", fillcolor="#e58139"] ;
94 -> 95 ;
96 [label="X[12] <= 0.904\ngini = 0.0\nsamples = 4710\nvalue = [4709, 1]", fillcolor="#e58139"] ;
95 -> 96 ;
97 [label="gini = 0.0\nsamples = 4572\nvalue = [4572, 0]", fillcolor="#e58139"] ;
96 -> 97 ;
98 [label="X[12] <= 0.904\ngini = 0.014\nsamples = 138\nvalue = [137, 1]", fillcolor="#e5823a"] ;
96 -> 98 ;
99 [label="gini = 0.0\nsamples = 1\nvalue = [0, 1]", fillcolor="#399de5"] ;
98 -> 99 ;
100 [label="gini = 0.0\nsamples = 137\nvalue = [137, 0]", fillcolor="#e58139"] ;
98 -> 100 ;
101 [label="X[0] <= 170358.0\ngini = 0.025\nsamples = 80\nvalue = [79, 1]", fillcolor="#e5833c"] ;
95 -> 101 ;
102 [label="gini = 0.0\nsamples = 1\nvalue = [0, 1]", fillcolor="#399de5"] ;
101 -> 102 ;
103 [label="gini = 0.0\nsamples = 79\nvalue = [79, 0]", fillcolor="#e58139"] ;
101 -> 103 ;
104 [label="X[29] <= 276.71\ngini = 0.043\nsamples = 182\nvalue = [178, 4]", fillcolor="#e6843d"] ;
94 -> 104 ;
105 [label="gini = 0.0\nsamples = 1\nvalue = [0, 1]", fillcolor="#399de5"] ;
104 -> 105 ;
106 [label="X[10] <= -1.955\ngini = 0.033\nsamples = 181\nvalue = [178, 3]", fillcolor="#e5833c"] ;
104 -> 106 ;
107 [label="X[19] <= 0.971\ngini = 0.208\nsamples = 17\nvalue = [15, 2]", fillcolor="#e89253"] ;
106 -> 107 ;
108 [label="X[25] <= 1.278\ngini = 0.117\nsamples = 16\nvalue = [15, 1]", fillcolor="#e78946"] ;
107 -> 108 ;
109 [label="gini = 0.0\nsamples = 15\nvalue = [15, 0]", fillcolor="#e58139"] ;
108 -> 109 ;
110 [label="gini = 0.0\nsamples = 1\nvalue = [0, 1]", fillcolor="#399de5"] ;
108 -> 110 ;
111 [label="gini = 0.0\nsamples = 1\nvalue = [0, 1]", fillcolor="#399de5"] ;
107 -> 111 ;
112 [label="X[1] <= 1.317\ngini = 0.012\nsamples = 164\nvalue = [163, 1]", fillcolor="#e5823a"] ;
106 -> 112 ;
113 [label="gini = 0.0\nsamples = 147\nvalue = [147, 0]", fillcolor="#e58139"] ;
112 -> 113 ;
114 [label="X[28] <= 0.068\ngini = 0.111\nsamples = 17\nvalue = [16, 1]", fillcolor="#e78945"] ;
112 -> 114 ;
115 [label="gini = 0.0\nsamples = 16\nvalue = [16, 0]", fillcolor="#e58139"] ;
114 -> 115 ;
116 [label="gini = 0.0\nsamples = 1\nvalue = [0, 1]", fillcolor="#399de5"] ;
114 -> 116 ;
117 [label="X[4] <= 2.676\ngini = 0.038\nsamples = 360\nvalue = [353, 7]", fillcolor="#e6833d"] ;
93 -> 117 ;
118 [label="gini = 0.0\nsamples = 1\nvalue = [0, 1]", fillcolor="#399de5"] ;
117 -> 118 ;
119 [label="X[21] <= -0.01\ngini = 0.033\nsamples = 359\nvalue = [353, 6]", fillcolor="#e5833c"] ;
117 -> 119 ;
120 [label="X[15] <= -1.374\ngini = 0.006\nsamples = 308\nvalue = [307, 1]", fillcolor="#e5813a"] ;
119 -> 120 ;
121 [label="X[15] <= -1.461\ngini = 0.057\nsamples = 34\nvalue = [33, 1]", fillcolor="#e6853f"] ;
120 -> 121 ;
122 [label="gini = 0.0\nsamples = 33\nvalue = [33, 0]", fillcolor="#e58139"] ;
121 -> 122 ;
123 [label="gini = 0.0\nsamples = 1\nvalue = [0, 1]", fillcolor="#399de5"] ;
121 -> 123 ;
124 [label="gini = 0.0\nsamples = 274\nvalue = [274, 0]", fillcolor="#e58139"] ;
120 -> 124 ;
125 [label="X[1] <= 1.789\ngini = 0.177\nsamples = 51\nvalue = [46, 5]", fillcolor="#e88f4f"] ;
119 -> 125 ;
126 [label="X[11] <= 1.839\ngini = 0.087\nsamples = 44\nvalue = [42, 2]", fillcolor="#e68742"] ;
125 -> 126 ;
127 [label="X[29] <= 702.585\ngini = 0.045\nsamples = 43\nvalue = [42, 1]", fillcolor="#e6843e"] ;
126 -> 127 ;
128 [label="gini = 0.0\nsamples = 42\nvalue = [42, 0]", fillcolor="#e58139"] ;
127 -> 128 ;
129 [label="gini = 0.0\nsamples = 1\nvalue = [0, 1]", fillcolor="#399de5"] ;
127 -> 129 ;
130 [label="gini = 0.0\nsamples = 1\nvalue = [0, 1]", fillcolor="#399de5"] ;
126 -> 130 ;
131 [label="X[5] <= 1.711\ngini = 0.49\nsamples = 7\nvalue = [4, 3]", fillcolor="#f8e0ce"] ;
125 -> 131 ;
132 [label="X[28] <= 0.039\ngini = 0.375\nsamples = 4\nvalue = [1, 3]", fillcolor="#7bbeee"] ;
131 -> 132 ;
133 [label="gini = 0.0\nsamples = 3\nvalue = [0, 3]", fillcolor="#399de5"] ;
132 -> 133 ;
134 [label="gini = 0.0\nsamples = 1\nvalue = [1, 0]", fillcolor="#e58139"] ;
132 -> 134 ;
135 [label="gini = 0.0\nsamples = 3\nvalue = [3, 0]", fillcolor="#e58139"] ;
131 -> 135 ;
136 [label="X[4] <= 0.48\ngini = 0.375\nsamples = 8\nvalue = [6, 2]", fillcolor="#eeab7b"] ;
92 -> 136 ;
137 [label="gini = 0.0\nsamples = 6\nvalue = [6, 0]", fillcolor="#e58139"] ;
136 -> 137 ;
138 [label="gini = 0.0\nsamples = 2\nvalue = [0, 2]", fillcolor="#399de5"] ;
136 -> 138 ;
139 [label="gini = 0.0\nsamples = 1\nvalue = [0, 1]", fillcolor="#399de5"] ;
91 -> 139 ;
140 [label="X[26] <= 2.744\ngini = 0.0\nsamples = 192666\nvalue = [192634, 32]", fillcolor="#e58139"] ;
90 -> 140 ;
141 [label="X[4] <= 4.821\ngini = 0.0\nsamples = 192637\nvalue = [192606, 31]", fillcolor="#e58139"] ;
140 -> 141 ;
142 [label="X[22] <= 2.151\ngini = 0.0\nsamples = 192201\nvalue = [192173, 28]", fillcolor="#e58139"] ;
141 -> 142 ;
143 [label="X[8] <= -2.203\ngini = 0.0\nsamples = 191978\nvalue = [191952, 26]", fillcolor="#e58139"] ;
142 -> 143 ;
144 [label="X[8] <= -2.204\ngini = 0.003\nsamples = 4087\nvalue = [4081, 6]", fillcolor="#e58139"] ;
143 -> 144 ;
145 [label="X[17] <= 2.03\ngini = 0.002\nsamples = 4086\nvalue = [4081, 5]", fillcolor="#e58139"] ;
144 -> 145 ;
146 [label="X[6] <= -2.281\ngini = 0.002\nsamples = 3988\nvalue = [3985, 3]", fillcolor="#e58139"] ;
145 -> 146 ;
147 [label="X[6] <= -2.334\ngini = 0.046\nsamples = 42\nvalue = [41, 1]", fillcolor="#e6843e"] ;
146 -> 147 ;
148 [label="gini = 0.0\nsamples = 41\nvalue = [41, 0]", fillcolor="#e58139"] ;
147 -> 148 ;
149 [label="gini = 0.0\nsamples = 1\nvalue = [0, 1]", fillcolor="#399de5"] ;
147 -> 149 ;
150 [label="X[19] <= 2.499\ngini = 0.001\nsamples = 3946\nvalue = [3944, 2]", fillcolor="#e58139"] ;
146 -> 150 ;
151 [label="X[15] <= 1.687\ngini = 0.001\nsamples = 3874\nvalue = [3873, 1]", fillcolor="#e58139"] ;
150 -> 151 ;
152 [label="gini = 0.0\nsamples = 3763\nvalue = [3763, 0]", fillcolor="#e58139"] ;
151 -> 152 ;
153 [label="X[15] <= 1.691\ngini = 0.018\nsamples = 111\nvalue = [110, 1]", fillcolor="#e5823b"] ;
151 -> 153 ;
154 [label="gini = 0.0\nsamples = 1\nvalue = [0, 1]", fillcolor="#399de5"] ;
153 -> 154 ;
155 [label="gini = 0.0\nsamples = 110\nvalue = [110, 0]", fillcolor="#e58139"] ;
153 -> 155 ;
156 [label="X[19] <= 2.503\ngini = 0.027\nsamples = 72\nvalue = [71, 1]", fillcolor="#e5833c"] ;
150 -> 156 ;
157 [label="gini = 0.0\nsamples = 1\nvalue = [0, 1]", fillcolor="#399de5"] ;
156 -> 157 ;
158 [label="gini = 0.0\nsamples = 71\nvalue = [71, 0]", fillcolor="#e58139"] ;
156 -> 158 ;
159 [label="X[17] <= 2.037\ngini = 0.04\nsamples = 98\nvalue = [96, 2]", fillcolor="#e6843d"] ;
145 -> 159 ;
160 [label="gini = 0.0\nsamples = 1\nvalue = [0, 1]", fillcolor="#399de5"] ;
159 -> 160 ;
161 [label="X[24] <= 0.607\ngini = 0.02\nsamples = 97\nvalue = [96, 1]", fillcolor="#e5823b"] ;
159 -> 161 ;
162 [label="gini = 0.0\nsamples = 95\nvalue = [95, 0]", fillcolor="#e58139"] ;
161 -> 162 ;
163 [label="X[29] <= 447.13\ngini = 0.5\nsamples = 2\nvalue = [1, 1]", fillcolor="#ffffff"] ;
161 -> 163 ;
164 [label="gini = 0.0\nsamples = 1\nvalue = [0, 1]", fillcolor="#399de5"] ;
163 -> 164 ;
165 [label="gini = 0.0\nsamples = 1\nvalue = [1, 0]", fillcolor="#e58139"] ;
163 -> 165 ;
166 [label="gini = 0.0\nsamples = 1\nvalue = [0, 1]", fillcolor="#399de5"] ;
144 -> 166 ;
167 [label="X[12] <= -3.761\ngini = 0.0\nsamples = 187891\nvalue = [187871, 20]", fillcolor="#e58139"] ;
143 -> 167 ;
168 [label="X[12] <= -3.765\ngini = 0.009\nsamples = 219\nvalue = [218, 1]", fillcolor="#e5823a"] ;
167 -> 168 ;
169 [label="gini = 0.0\nsamples = 218\nvalue = [218, 0]", fillcolor="#e58139"] ;
168 -> 169 ;
170 [label="gini = 0.0\nsamples = 1\nvalue = [0, 1]", fillcolor="#399de5"] ;
168 -> 170 ;
171 [label="X[7] <= 1.078\ngini = 0.0\nsamples = 187672\nvalue = [187653, 19]", fillcolor="#e58139"] ;
167 -> 171 ;
172 [label="X[20] <= -1.377\ngini = 0.0\nsamples = 171303\nvalue = [171293, 10]", fillcolor="#e58139"] ;
171 -> 172 ;
173 [label="X[20] <= -1.377\ngini = 0.004\nsamples = 916\nvalue = [914, 2]", fillcolor="#e58139"] ;
172 -> 173 ;
174 [label="X[1] <= -1.74\ngini = 0.002\nsamples = 915\nvalue = [914, 1]", fillcolor="#e58139"] ;
173 -> 174 ;
175 [label="gini = 0.0\nsamples = 906\nvalue = [906, 0]", fillcolor="#e58139"] ;
174 -> 175 ;
176 [label="X[4] <= -0.467\ngini = 0.198\nsamples = 9\nvalue = [8, 1]", fillcolor="#e89152"] ;
174 -> 176 ;
177 [label="gini = 0.0\nsamples = 8\nvalue = [8, 0]", fillcolor="#e58139"] ;
176 -> 177 ;
178 [label="gini = 0.0\nsamples = 1\nvalue = [0, 1]", fillcolor="#399de5"] ;
176 -> 178 ;
179 [label="gini = 0.0\nsamples = 1\nvalue = [0, 1]", fillcolor="#399de5"] ;
173 -> 179 ;
180 [label="X[27] <= 1.214\ngini = 0.0\nsamples = 170387\nvalue = [170379, 8]", fillcolor="#e58139"] ;
172 -> 180 ;
181 [label="X[19] <= -2.548\ngini = 0.0\nsamples = 170048\nvalue = [170041, 7]", fillcolor="#e58139"] ;
180 -> 181 ;
182 [label="X[19] <= -2.549\ngini = 0.004\nsamples = 465\nvalue = [464, 1]", fillcolor="#e58139"] ;
181 -> 182 ;
183 [label="gini = 0.0\nsamples = 464\nvalue = [464, 0]", fillcolor="#e58139"] ;
182 -> 183 ;
184 [label="gini = 0.0\nsamples = 1\nvalue = [0, 1]", fillcolor="#399de5"] ;
182 -> 184 ;
185 [label="X[11] <= 2.282\ngini = 0.0\nsamples = 169583\nvalue = [169577, 6]", fillcolor="#e58139"] ;
181 -> 185 ;
186 [label="X[4] <= 3.988\ngini = 0.0\nsamples = 168519\nvalue = [168514, 5]", fillcolor="#e58139"] ;
185 -> 186 ;
187 [label="X[16] <= -2.156\ngini = 0.0\nsamples = 166985\nvalue = [166981, 4]", fillcolor="#e58139"] ;
186 -> 187 ;
188 [label="X[16] <= -2.156\ngini = 0.001\nsamples = 2228\nvalue = [2227, 1]", fillcolor="#e58139"] ;
187 -> 188 ;
189 [label="gini = 0.0\nsamples = 2227\nvalue = [2227, 0]", fillcolor="#e58139"] ;
188 -> 189 ;
190 [label="gini = 0.0\nsamples = 1\nvalue = [0, 1]", fillcolor="#399de5"] ;
188 -> 190 ;
191 [label="X[14] <= -1.113\ngini = 0.0\nsamples = 164757\nvalue = [164754, 3]", fillcolor="#e58139"] ;
187 -> 191 ;
192 [label="X[14] <= -1.113\ngini = 0.0\nsamples = 8457\nvalue = [8455, 2]", fillcolor="#e58139"] ;
191 -> 192 ;
193 [label="X[22] <= -1.014\ngini = 0.0\nsamples = 8456\nvalue = [8455, 1]", fillcolor="#e58139"] ;
192 -> 193 ;
194 [label="X[22] <= -1.015\ngini = 0.012\nsamples = 165\nvalue = [164, 1]", fillcolor="#e5823a"] ;
193 -> 194 ;
195 [label="gini = 0.0\nsamples = 164\nvalue = [164, 0]", fillcolor="#e58139"] ;
194 -> 195 ;
196 [label="gini = 0.0\nsamples = 1\nvalue = [0, 1]", fillcolor="#399de5"] ;
194 -> 196 ;
197 [label="gini = 0.0\nsamples = 8291\nvalue = [8291, 0]", fillcolor="#e58139"] ;
193 -> 197 ;
198 [label="gini = 0.0\nsamples = 1\nvalue = [0, 1]", fillcolor="#399de5"] ;
192 -> 198 ;
199 [label="X[4] <= 2.521\ngini = 0.0\nsamples = 156300\nvalue = [156299, 1]", fillcolor="#e58139"] ;
191 -> 199 ;
200 [label="gini = 0.0\nsamples = 150403\nvalue = [150403, 0]", fillcolor="#e58139"] ;
199 -> 200 ;
201 [label="X[4] <= 2.521\ngini = 0.0\nsamples = 5897\nvalue = [5896, 1]", fillcolor="#e58139"] ;
199 -> 201 ;
202 [label="gini = 0.0\nsamples = 1\nvalue = [0, 1]", fillcolor="#399de5"] ;
201 -> 202 ;
203 [label="gini = 0.0\nsamples = 5896\nvalue = [5896, 0]", fillcolor="#e58139"] ;
201 -> 203 ;
204 [label="X[4] <= 3.988\ngini = 0.001\nsamples = 1534\nvalue = [1533, 1]", fillcolor="#e58139"] ;
186 -> 204 ;
205 [label="gini = 0.0\nsamples = 1\nvalue = [0, 1]", fillcolor="#399de5"] ;
204 -> 205 ;
206 [label="gini = 0.0\nsamples = 1533\nvalue = [1533, 0]", fillcolor="#e58139"] ;
204 -> 206 ;
207 [label="X[11] <= 2.282\ngini = 0.002\nsamples = 1064\nvalue = [1063, 1]", fillcolor="#e58139"] ;
185 -> 207 ;
208 [label="gini = 0.0\nsamples = 1\nvalue = [0, 1]", fillcolor="#399de5"] ;
207 -> 208 ;
209 [label="gini = 0.0\nsamples = 1063\nvalue = [1063, 0]", fillcolor="#e58139"] ;
207 -> 209 ;
210 [label="X[27] <= 1.215\ngini = 0.006\nsamples = 339\nvalue = [338, 1]", fillcolor="#e5813a"] ;
180 -> 210 ;
211 [label="gini = 0.0\nsamples = 1\nvalue = [0, 1]", fillcolor="#399de5"] ;
210 -> 211 ;
212 [label="gini = 0.0\nsamples = 338\nvalue = [338, 0]", fillcolor="#e58139"] ;
210 -> 212 ;
213 [label="X[7] <= 1.078\ngini = 0.001\nsamples = 16369\nvalue = [16360, 9]", fillcolor="#e58139"] ;
171 -> 213 ;
214 [label="gini = 0.0\nsamples = 1\nvalue = [0, 1]", fillcolor="#399de5"] ;
213 -> 214 ;
215 [label="X[15] <= 2.204\ngini = 0.001\nsamples = 16368\nvalue = [16360, 8]", fillcolor="#e58139"] ;
213 -> 215 ;
216 [label="X[29] <= 0.005\ngini = 0.001\nsamples = 16320\nvalue = [16313, 7]", fillcolor="#e58139"] ;
215 -> 216 ;
217 [label="X[1] <= 0.449\ngini = 0.036\nsamples = 55\nvalue = [54, 1]", fillcolor="#e5833d"] ;
216 -> 217 ;
218 [label="gini = 0.0\nsamples = 53\nvalue = [53, 0]", fillcolor="#e58139"] ;
217 -> 218 ;
219 [label="X[16] <= -0.24\ngini = 0.5\nsamples = 2\nvalue = [1, 1]", fillcolor="#ffffff"] ;
217 -> 219 ;
220 [label="gini = 0.0\nsamples = 1\nvalue = [1, 0]", fillcolor="#e58139"] ;
219 -> 220 ;
221 [label="gini = 0.0\nsamples = 1\nvalue = [0, 1]", fillcolor="#399de5"] ;
219 -> 221 ;
222 [label="X[26] <= -0.894\ngini = 0.001\nsamples = 16265\nvalue = [16259, 6]", fillcolor="#e58139"] ;
216 -> 222 ;
223 [label="X[26] <= -0.895\ngini = 0.012\nsamples = 342\nvalue = [340, 2]", fillcolor="#e5823a"] ;
222 -> 223 ;
224 [label="X[1] <= -0.103\ngini = 0.006\nsamples = 341\nvalue = [340, 1]", fillcolor="#e5813a"] ;
223 -> 224 ;
225 [label="gini = 0.0\nsamples = 322\nvalue = [322, 0]", fillcolor="#e58139"] ;
224 -> 225 ;
226 [label="X[23] <= -0.802\ngini = 0.1\nsamples = 19\nvalue = [18, 1]", fillcolor="#e68844"] ;
224 -> 226 ;
227 [label="gini = 0.0\nsamples = 1\nvalue = [0, 1]", fillcolor="#399de5"] ;
226 -> 227 ;
228 [label="gini = 0.0\nsamples = 18\nvalue = [18, 0]", fillcolor="#e58139"] ;
226 -> 228 ;
229 [label="gini = 0.0\nsamples = 1\nvalue = [0, 1]", fillcolor="#399de5"] ;
223 -> 229 ;
230 [label="X[13] <= -2.136\ngini = 0.001\nsamples = 15923\nvalue = [15919, 4]", fillcolor="#e58139"] ;
222 -> 230 ;
231 [label="X[13] <= -2.138\ngini = 0.01\nsamples = 208\nvalue = [207, 1]", fillcolor="#e5823a"] ;
230 -> 231 ;
232 [label="gini = 0.0\nsamples = 207\nvalue = [207, 0]", fillcolor="#e58139"] ;
231 -> 232 ;
233 [label="gini = 0.0\nsamples = 1\nvalue = [0, 1]", fillcolor="#399de5"] ;
231 -> 233 ;
234 [label="X[7] <= 1.086\ngini = 0.0\nsamples = 15715\nvalue = [15712, 3]", fillcolor="#e58139"] ;
230 -> 234 ;
235 [label="X[7] <= 1.086\ngini = 0.008\nsamples = 264\nvalue = [263, 1]", fillcolor="#e5813a"] ;
234 -> 235 ;
236 [label="gini = 0.0\nsamples = 262\nvalue = [262, 0]", fillcolor="#e58139"] ;
235 -> 236 ;
237 [label="X[24] <= 0.376\ngini = 0.5\nsamples = 2\nvalue = [1, 1]", fillcolor="#ffffff"] ;
235 -> 237 ;
238 [label="gini = 0.0\nsamples = 1\nvalue = [1, 0]", fillcolor="#e58139"] ;
237 -> 238 ;
239 [label="gini = 0.0\nsamples = 1\nvalue = [0, 1]", fillcolor="#399de5"] ;
237 -> 239 ;
240 [label="X[26] <= -0.541\ngini = 0.0\nsamples = 15451\nvalue = [15449, 2]", fillcolor="#e58139"] ;
234 -> 240 ;
241 [label="X[26] <= -0.541\ngini = 0.002\nsamples = 1599\nvalue = [1597, 2]", fillcolor="#e58139"] ;
240 -> 241 ;
242 [label="X[13] <= -1.52\ngini = 0.001\nsamples = 1598\nvalue = [1597, 1]", fillcolor="#e58139"] ;
241 -> 242 ;
243 [label="X[13] <= -1.523\ngini = 0.026\nsamples = 75\nvalue = [74, 1]", fillcolor="#e5833c"] ;
242 -> 243 ;
244 [label="gini = 0.0\nsamples = 74\nvalue = [74, 0]", fillcolor="#e58139"] ;
243 -> 244 ;
245 [label="gini = 0.0\nsamples = 1\nvalue = [0, 1]", fillcolor="#399de5"] ;
243 -> 245 ;
246 [label="gini = 0.0\nsamples = 1523\nvalue = [1523, 0]", fillcolor="#e58139"] ;
242 -> 246 ;
247 [label="gini = 0.0\nsamples = 1\nvalue = [0, 1]", fillcolor="#399de5"] ;
241 -> 247 ;
248 [label="gini = 0.0\nsamples = 13852\nvalue = [13852, 0]", fillcolor="#e58139"] ;
240 -> 248 ;
249 [label="X[15] <= 2.209\ngini = 0.041\nsamples = 48\nvalue = [47, 1]", fillcolor="#e6843d"] ;
215 -> 249 ;
250 [label="gini = 0.0\nsamples = 1\nvalue = [0, 1]", fillcolor="#399de5"] ;
249 -> 250 ;
251 [label="gini = 0.0\nsamples = 47\nvalue = [47, 0]", fillcolor="#e58139"] ;
249 -> 251 ;
252 [label="X[22] <= 2.153\ngini = 0.018\nsamples = 223\nvalue = [221, 2]", fillcolor="#e5823b"] ;
142 -> 252 ;
253 [label="gini = 0.0\nsamples = 1\nvalue = [0, 1]", fillcolor="#399de5"] ;
252 -> 253 ;
254 [label="X[26] <= 1.181\ngini = 0.009\nsamples = 222\nvalue = [221, 1]", fillcolor="#e5823a"] ;
252 -> 254 ;
255 [label="gini = 0.0\nsamples = 219\nvalue = [219, 0]", fillcolor="#e58139"] ;
254 -> 255 ;
256 [label="X[13] <= -0.341\ngini = 0.444\nsamples = 3\nvalue = [2, 1]", fillcolor="#f2c09c"] ;
254 -> 256 ;
257 [label="gini = 0.0\nsamples = 1\nvalue = [0, 1]", fillcolor="#399de5"] ;
256 -> 257 ;
258 [label="gini = 0.0\nsamples = 2\nvalue = [2, 0]", fillcolor="#e58139"] ;
256 -> 258 ;
259 [label="X[4] <= 4.821\ngini = 0.014\nsamples = 436\nvalue = [433, 3]", fillcolor="#e5823a"] ;
141 -> 259 ;
260 [label="gini = 0.0\nsamples = 1\nvalue = [0, 1]", fillcolor="#399de5"] ;
259 -> 260 ;
261 [label="X[10] <= 4.006\ngini = 0.009\nsamples = 435\nvalue = [433, 2]", fillcolor="#e5823a"] ;
259 -> 261 ;
262 [label="X[29] <= 0.335\ngini = 0.005\nsamples = 430\nvalue = [429, 1]", fillcolor="#e58139"] ;
261 -> 262 ;
263 [label="X[28] <= 0.555\ngini = 0.142\nsamples = 13\nvalue = [12, 1]", fillcolor="#e78c49"] ;
262 -> 263 ;
264 [label="gini = 0.0\nsamples = 12\nvalue = [12, 0]", fillcolor="#e58139"] ;
263 -> 264 ;
265 [label="gini = 0.0\nsamples = 1\nvalue = [0, 1]", fillcolor="#399de5"] ;
263 -> 265 ;
266 [label="gini = 0.0\nsamples = 417\nvalue = [417, 0]", fillcolor="#e58139"] ;
262 -> 266 ;
267 [label="X[12] <= -0.298\ngini = 0.32\nsamples = 5\nvalue = [4, 1]", fillcolor="#eca06a"] ;
261 -> 267 ;
268 [label="gini = 0.0\nsamples = 1\nvalue = [0, 1]", fillcolor="#399de5"] ;
267 -> 268 ;
269 [label="gini = 0.0\nsamples = 4\nvalue = [4, 0]", fillcolor="#e58139"] ;
267 -> 269 ;
270 [label="X[26] <= 2.749\ngini = 0.067\nsamples = 29\nvalue = [28, 1]", fillcolor="#e68640"] ;
140 -> 270 ;
271 [label="gini = 0.0\nsamples = 1\nvalue = [0, 1]", fillcolor="#399de5"] ;
270 -> 271 ;
272 [label="gini = 0.0\nsamples = 28\nvalue = [28, 0]", fillcolor="#e58139"] ;
270 -> 272 ;
}